#ifndef WEIGHTS_H
#define WEIGHTS_H

// Example weights: input-hidden weights
const float decoder_bias_hh_cell[10] = {-0.169506, -0.182136, -0.059242, 0.149145, -0.078055, -0.131738, 0.104628, -0.088891, 0.356445, -0.268520};
const float decoder_bias_hh_forget[10] = {0.633342, -0.081708, 0.402295, 0.364943, 0.247695, 0.158763, -0.057434, -0.040290, 0.362718, 0.233838};
const float decoder_bias_hh_input[10] = {-0.055090, -0.278625, 0.245824, 0.228484, -0.202243, 0.285863, -0.080040, 0.540331, 0.117556, 0.173198};
const float decoder_bias_hh_output[10] = {0.287164, 0.113352, 0.501984, 0.148197, 0.324692, 0.451398, 0.269172, 0.279744, 0.356668, 0.728776};
const float decoder_bias_ih_cell[10] = {0.355233, 0.241125, -0.138401, -0.125860, -0.126504, -0.037753, 0.317756, -0.303282, 0.036895, -0.160776};
const float decoder_bias_ih_forget[10] = {0.191016, 0.324069, -0.027399, -0.069111, 0.125765, 0.287942, 0.003502, 0.407326, 0.454721, 0.340605};
const float decoder_bias_ih_input[10] = {0.130780, 0.129410, 0.055115, 0.021749, -0.124312, 0.241272, 0.020107, 0.510424, -0.046922, 0.213842};
const float decoder_bias_ih_output[10] = {0.291569, 0.527837, 0.692056, 0.109263, 0.271491, 0.407211, 0.030898, 0.322565, -0.038977, 0.917933};
const float decoder_weight_hh_cell[10][10] = {
    { 0.177907,  0.191672,  0.425501, -0.141192, -0.045303, -0.262493,  0.236230, -0.541465, -0.254982, -0.334150 },
    { 0.261710,  0.336429, -0.050203,  0.723467, -0.233628, -0.116406,  0.023214, -0.103955, -0.689637,  0.216853 },
    {-0.433860,  0.215755,  0.114722,  0.470057, -0.456439, -0.542808,  0.277898,  0.288024, -0.293477, -0.010172 },
    {-0.638178, -0.337069, -0.293448,  0.339158, -0.402536,  0.079995, -0.140467,  0.109690, -0.486579, -0.110437 },
    { 0.804421, -0.164023, -0.012043, -0.040699,  0.392471,  0.047714,  0.040891, -0.273935,  0.063846,  0.240299 },
    { 0.269607, -0.055014,  0.022122, -0.561300,  0.087546,  0.323385, -0.255319,  0.016791,  0.577290, -0.169263 },
    { 0.662687,  0.363974,  0.490065,  0.129634,  0.326419, -0.245796, -0.050025,  0.236880, -0.108901,  0.045847 },
    {-0.288842, -0.040271, -0.637088, -0.353256,  0.022167,  0.515142, -0.699616,  0.425912,  0.291948,  0.014831 },
    {-0.275540, -0.348062,  0.164030, -0.059226,  0.010568, -0.117786,  0.109631,  0.049295,  0.239873, -0.138251 },
    { 0.269148,  0.031560, -0.612551, -0.173199,  0.355835,  0.174587, -0.135189,  0.212773,  0.284333, -0.463753 }
};
const float decoder_weight_hh_forget[10][10] = {
    {-0.249336, -0.176149, -0.490292, -0.558331, -0.015575,  0.062362, -0.333664,  0.006096,  0.562950, -0.116015},
    {-0.175432, -0.952230,  0.172245, -0.362436, -0.132057,  0.355753,  0.902305,  0.144906,  0.205307, -0.427792},
    { 0.321963, -0.464419, -0.190059, -0.120683, -0.158921,  0.323472, -0.140736,  0.167524,  0.412255,  0.280962},
    { 0.533022,  0.068936, -0.339285, -0.315504,  0.265594,  0.026160,  0.218586,  0.129708,  0.361819,  0.272045},
    { 0.653376, -0.166970, -0.168418, -0.174629, -0.194900,  0.054211, -0.060451,  0.138422,  0.167276,  0.126404},
    {-0.475638,  0.069754, -0.698381, -0.293252, -0.386677,  0.780962, -0.387336,  0.121364,  0.437507,  0.326154},
    {-0.323064, -0.725743, -0.388675, -0.011476, -0.735757,  0.574442,  0.044619,  0.005450,  0.318072,  0.227951},
    {-0.134250,  0.486607,  0.287270,  0.043570, -0.292697, -0.208924, -0.081765, -0.350159,  0.381870, -0.019372},
    {-0.053810, -0.275833,  0.238672, -0.344014,  0.433708,  0.023537,  0.177837, -0.220858,  0.426216,  0.193520},
    { 1.904868,  0.431511, -0.065562, -0.038049,  0.313972,  0.062735,  0.209522,  0.161625,  0.437393,  0.593243}
};
const float decoder_weight_hh_input[10][10] = {
    {-1.342239,  0.103544,  0.698871, -0.021034, -0.401117, -0.487353,  0.247621, -0.318555, -0.188603, -0.827534},
    {-0.079835, -1.290036,  0.505894,  0.060009,  0.286464, -0.402506,  0.718268, -0.196962,  0.056960, -1.196054},
    { 0.278953, -0.224636,  0.074281, -0.458714,  0.529768, -0.217234,  0.289813, -0.772868, -0.251950,  0.066313},
    { 0.277643, -0.261836,  0.079062, -0.269120,  0.734084, -0.197828,  0.471346, -0.364979,  0.004451, -0.434132},
    { 0.902530, -0.655266,  0.025882,  0.007557, -0.259584, -0.071134,  0.239940, -0.682171,  0.184149, -0.363096},
    {-0.289554, -0.358278, -0.333922, -0.457131, -0.098487,  0.281796,  0.254658,  0.162963,  0.255870,  0.395960},
    {-0.048200, -1.277192, -0.357905, -0.238768,  0.184551,  0.003992,  0.555719, -0.163960,  0.031433, -0.075891},
    { 0.311094, -0.552845,  0.269980, -0.168453, -0.111114, -0.065884, -0.007994, -0.055726,  0.136226, -0.092410},
    { 0.213753,  0.110811,  0.013066, -0.517448,  0.285735,  0.058931,  0.095324,  0.253635,  0.289829, -0.283943},
    { 2.091351,  0.186843,  0.035185,  0.202706, -0.619854, -0.515509,  0.682138, -0.682259, -0.080916,  0.237024}
};
const float decoder_weight_hh_output[10][10] = {
    { 0.077786, -0.486493, -0.038675, -0.857546,  0.294507,  0.563788, -0.483935,  0.071535,  0.991967, -0.269393},
    {-0.457109, -0.872451,  0.342714, -0.421381,  0.192859,  0.183584,  0.239313, -0.073505,  0.641723, -0.690525},
    { 0.112385, -0.184192, -0.245068, -0.270656,  0.217759,  0.600135, -0.300989,  0.066947,  0.291533,  0.679141},
    { 0.546206, -0.345741,  0.082616, -0.011280,  0.489741,  0.420118,  0.102481, -0.012725,  0.244370, -0.328753},
    { 0.171768, -0.417279, -0.017445, -0.181503,  0.478125,  0.047734,  0.266469, -0.062655,  0.054780, -0.397055},
    { 0.018213, -0.009997, -0.618560, -0.477944,  0.249175,  0.784581,  0.069151,  0.371786,  0.080044, -0.056602},
    { 0.158785,  0.242564, -0.272392, -0.013863, -0.367800,  0.635584, -0.472121,  0.564046, -0.023775,  0.958679},
    { 0.307631,  0.094612, -0.157332, -0.222551,  0.206709,  0.097666, -0.201144, -0.252352,  0.674839, -0.295739},
    { 0.155599, -0.318575, -0.096033, -0.607986,  0.496729,  0.307338, -0.059539,  0.056233,  0.299540, -0.319664},
    { 0.472712, -0.643138, -0.198439, -0.678457,  0.756863,  0.110462, -0.004132, -0.070658,  0.611944,  0.105314}
};
const float decoder_weight_ih_cell[10][10] = {
    {-0.283062, -0.025789,  0.044502, -0.133505,  0.082525,  0.043869,  0.189154,  0.253291,  0.156230, -0.087122},
    {-0.027199,  0.298264, -0.177148, -0.226765, -0.000896,  0.258158, -0.131390,  0.356333,  0.017215, -0.036371},
    {-0.307453,  0.285032, -0.114287,  0.214798,  0.044852,  0.414729,  0.127123, -0.010583,  0.049170,  0.318772},
    { 0.158135, -0.116674, -0.267985, -0.140759,  0.283200, -0.080836, -0.089689,  0.517423,  0.245177,  0.156330},
    {-0.050310,  0.301752,  0.080953,  0.055800, -0.206496,  0.171164,  0.320171, -0.055946, -0.403357,  0.145560},
    {-0.179896,  0.002881,  0.058991,  0.032418, -0.213526, -0.037838, -0.394753, -0.125628,  0.043838,  0.267871},
    {-0.121157, -0.111084,  0.275309, -0.177444, -0.160733, -0.328208,  0.080130, -0.085363,  0.369242,  0.060735},
    { 0.191384,  0.049529,  0.133254,  0.020052, -0.354468,  0.127061,  0.224878, -0.195980,  0.338245, -0.070751},
    {-0.373596,  0.097702,  0.241714,  0.324018,  0.262656,  0.226519, -0.013378, -0.241994, -0.048378, -0.150404},
    {-0.146216, -0.116668, -0.060222,  0.032622,  0.075579,  0.246516, -0.319025,  0.332246,  0.348169,  0.035232}
};
const float decoder_weight_ih_forget[10][10] = {
    {-0.635728,  0.175858, -0.238390,  0.423138,  0.178364,  0.027030,  0.367632,  0.195880, -0.219595, -0.017228},
    {-0.004374,  0.562306,  0.439083, -0.030661,  0.012129,  0.368128,  0.172090, -0.061853, -0.170769,  0.533741},
    {-0.002567,  0.541264,  0.042337,  0.365874, -0.013031,  0.056655,  0.481289,  0.182466,  0.197979,  0.098146},
    {-0.472979,  0.151024, -0.256740,  0.206130,  0.285812,  0.114252,  0.439250,  0.147268,  0.077879, -0.227037},
    { 0.071619, -0.038095, -0.626376,  0.455017,  0.355370,  0.531307,  0.266959,  0.528285,  0.476590, -0.207532},
    {-0.200984,  0.130721,  0.160182, -0.148764,  0.443761,  0.167125, -0.066450,  0.436580,  0.227109, -0.316912},
    {-0.004296,  0.373119, -0.160559,  0.122339, -0.031327,  0.324951,  0.361402,  0.270531, -0.116760, -0.224185},
    {-0.155945,  0.027843, -0.432202, -0.036105,  0.118154,  0.223352,  0.255659,  0.489616, -0.001621, -0.171260},
    {-0.113826,  0.263014, -0.157781,  0.395903,  0.521526,  0.274026, -0.002035,  0.205566, -0.099773,  0.147765},
    {-0.463646, -0.066414,  0.114616,  0.239838, -0.011937,  0.312678,  0.003996, -0.070987,  0.053062, -0.534323}
};
const float decoder_weight_ih_input[10][10] = {
    {-0.185148,  0.186362,  0.435341,  0.099331, -0.338361, -0.068359, -0.538176, -0.038370, -0.608167,  0.226459},
    { 0.233506,  0.339639,  0.576344,  0.047337,  0.014526,  0.479681, -0.090824,  0.050113,  0.062373,  0.207181},
    {-0.227396,  0.254963, -0.146284,  0.342257,  0.658868,  0.734664,  0.575981,  0.591712, -0.113687, -0.243932},
    {-0.087800, -0.203537, -0.357911, -0.065961, -0.238349,  0.190205,  0.093723, -0.306128, -0.363023, -0.117725},
    { 0.255790, -0.198591, -0.265638, -0.126505,  0.136949,  0.063512,  0.021166, -0.012876,  0.380318, -0.495989},
    { 0.297310,  0.206045,  0.224726, -0.014206,  0.453669,  0.015580,  0.161704,  0.150249,  0.210477,  0.046561},
    { 0.302485, -0.134528,  0.126296, -0.239399,  0.111373,  0.138948, -0.158843, -0.188544,  0.150801,  0.237028},
    {-0.485254,  0.290666, -0.112019,  0.111694,  0.179267,  0.129258,  0.318663,  0.123980, -0.354221, -0.563081},
    { 0.185924, -0.079726, -0.166134, -0.263446, -0.213973,  0.274355, -0.057565, -0.009724, -0.003667,  0.206010},
    {-0.106409, -0.191196,  0.401936, -0.119517, -0.232934,  0.012924, -0.043683,  0.024729, -0.271077, -0.982689}
};
const float decoder_weight_ih_output[10][10] = {
    {-0.299755,  0.376727,  0.142663,  0.513647,  0.389827,  0.348177,  0.641833,  0.074724,  0.174420, -0.213882},
    {-0.588100,  0.068825,  0.058621,  0.525661,  0.209252, -0.058440,  0.669979,  0.246770,  0.349641, -0.564245},
    {-0.647324,  0.571244, -0.445158,  0.886877,  0.322571,  0.590413,  0.440697,  0.763677,  0.692237, -0.343016},
    {-0.087324,  0.352854,  0.210692,  0.160311,  0.251254,  0.514892,  0.087661, -0.075779,  0.389915, -0.064560},
    {-0.097755,  0.314607, -0.649152,  0.067437, -0.018630, -0.108835,  0.411654,  0.006868,  0.112564, -0.221541},
    {-0.033838,  0.090800, -0.002081,  0.199551,  0.004721,  0.031974,  0.379371,  0.137583,  0.447237, -0.339419},
    { 0.022827, -0.288484, -0.010097, -0.011680, -0.104774,  0.132512,  0.267767,  0.098031, -0.210843, -0.113227},
    {-0.285209,  0.759769, -0.092769,  0.205507,  0.342588,  0.114412,  0.325867,  0.624143,  0.224754, -0.502617},
    { 0.088098,  0.320560, -0.064144,  0.062639,  0.400930,  0.069283, -0.113627,  0.102850, -0.088896, -0.222070},
    {-0.610236,  0.745275, -0.759314,  0.712931,  0.775462,  0.709296,  1.176187,  0.515713,  0.049975, -1.054512}
};
const float encoder_bias_hh_cell[10] = {
    -0.277700, -0.080183, 0.158034, 0.092730, 0.404010, 0.206754, 0.088002, 0.186711, 0.323143, -0.100079
};

const float encoder_bias_hh_forget[10] = {
    0.271866, 0.434257, 0.287204, 0.465388, 0.225725, 0.385701, -0.066382, 0.219511, 0.514216, 0.171955
};

const float encoder_bias_hh_input[10] = {
    -0.040446, -0.312821, -0.351500, -0.143027, 0.403015, -0.281533, 0.156390, 0.334001, -0.175422, 0.104900
};

const float encoder_bias_hh_output[10] = {
    0.234799, -0.053440, -0.008451, -0.089577, -0.032582, -0.064723, -0.186004, 0.178942, -0.115351, 0.056894
};

const float encoder_bias_ih_cell[10] = {
    -0.033078, -0.046223, 0.136606, 0.380739, 0.422444, -0.228040, 0.379974, 0.488454, -0.217958, -0.074037
};

const float encoder_bias_ih_forget[10] = {
    0.135913, 0.387048, 0.341257, 0.412755, 0.226157, 0.591152, 0.330476, 0.408553, 0.377624, 0.422209
};

const float encoder_bias_ih_input[10] = {
    -0.080391, -0.233587, -0.268723, 0.258362, 0.085103, -0.502656, -0.195393, 0.238639, 0.033733, 0.150580
};

const float encoder_bias_ih_output[10] = {
    0.294045, -0.045554, 0.073461, 0.145959, 0.001900, -0.010754, -0.072947, 0.483067, -0.165912, 0.025996
};

const float encoder_weight_hh_cell[10][10] = {
    { 0.091214,  0.212033,  0.454632, -0.376124,  0.115291,  0.902029, -0.084287, -0.119036, -0.573614,  0.213318},
    {-0.088069,  0.442187, -0.420696, -0.330707,  0.159694,  0.393172,  0.031230,  0.124577, -0.243808,  0.230932},
    {-0.042382, -0.080473,  0.168487, -0.199351,  0.108136,  0.535404, -0.030333, -0.090028, -0.471165, -0.318059},
    {-0.126582,  0.406954,  0.756493,  0.345248,  0.200312,  0.181337,  0.163795,  0.041085,  0.062320, -0.094009},
    { 0.062223, -0.198435,  0.110752, -0.034325,  0.274482,  0.155714,  0.294461,  0.305159,  0.111427, -0.342402},
    { 0.205525,  0.336412,  0.246790,  0.168023,  0.102641,  0.305368, -0.004801, -0.144993, -0.199870, -0.458465},
    {-0.052123, -0.050090, -0.439631,  0.149084,  0.356033, -0.411197, -0.145719,  0.156458,  0.168138, -0.068172},
    {-0.351639, -0.350991, -0.020058,  0.115656,  0.406385, -0.253583,  0.363335, -0.057791,  0.483418, -0.281699},
    {-0.292176, -0.375154,  0.446645, -0.213677,  0.209346, -0.390621,  0.138523,  0.032515,  0.192701,  0.013710},
    { 0.198186, -0.020068,  0.201516, -0.091934,  0.056128,  0.079223, -0.036636, -0.316166,  0.358612, -0.177394}
};
const float encoder_weight_hh_forget[10][10] = {
    {-0.459787, -0.131278, -0.143717, -0.099743,  0.551109, -1.175639,  0.283238,  0.364192,  0.476329,  0.137723},
    {-0.014374,  0.860194,  0.188316,  0.415618,  0.179709,  0.305422,  0.297441,  0.182735, -0.180443, -0.160954},
    {-0.250805, -0.468907, -0.289185,  0.185056,  0.188949, -0.510143,  0.200339,  0.014401,  0.653671,  0.232476},
    {-0.023862,  0.251459,  0.583162,  0.476742,  0.459954,  0.380973,  0.489495,  0.284791, -0.435231, -0.532097},
    { 0.199573,  0.117249,  0.578232,  0.239037,  0.061512, -0.192371, -0.125160,  0.006029, -0.065233, -0.546712},
    {-0.562958,  0.861518, -0.090497,  0.501747,  0.239705,  0.569740,  0.713544,  0.077211,  0.055224, -0.815283},
    { 0.004094,  0.172502, -0.269832, -0.326848, -0.171099, -0.119496, -0.305912,  0.277927,  0.004338, -0.091208},
    {-0.224929,  0.285517, -0.426768,  0.150826,  0.072699, -0.838188,  0.197972,  0.222675,  0.726926, -0.181444},
    {-0.080509, -0.322518,  0.232865,  0.263761, -0.201657,  0.276121,  0.080355, -0.013530,  0.133299,  0.396325},
    { 0.045547,  0.252135,  0.468866,  0.354058,  0.461631, -0.094472, -0.003109, -0.006787, -0.571525, -0.558766}
};
const float encoder_weight_hh_input[10][10] = {
    {-0.004016, -0.341948, -0.657829, -0.256744,  0.238766, -0.735379,  0.018538,  0.286056,  0.577740, -0.206217},
    {-0.053945,  0.405232, -0.469206, -0.377427, -0.069789,  0.139044, -0.283561, -0.358793, -0.208127, -0.112144},
    { 0.140572, -0.426731, -0.665643, -0.598980, -0.339933, -0.535082, -0.458847, -0.455262,  0.395459,  0.790779},
    { 0.209090,  1.013553,  0.998624,  0.055088, -0.026897,  0.436082, -0.027543, -0.021473, -0.147480, -0.495402},
    {-0.288152, -0.134167, -0.067752,  0.385206, -0.148734, -0.255135, -0.026631,  0.004091,  0.161849, -0.151300},
    { 0.283649,  0.202603, -0.148561, -0.359609,  0.108862,  0.244434, -0.280191, -0.538445,  0.294828, -0.071803},
    {-0.031948, -0.246875, -0.226472, -0.022069, -0.161563, -0.439979,  0.019261,  0.219373,  0.066358, -0.264731},
    { 0.057113, -0.142177, -0.073328, -0.024865, -0.069339, -0.497618,  0.164298,  0.140828,  0.887579, -0.008286},
    {-0.046580, -0.091399,  0.429270,  0.361165,  0.130429,  0.355288, -0.280527, -0.165576, -0.103130, -0.111621},
    {-0.192783,  0.489392,  0.274546, -0.085596,  0.281256,  0.180913, -0.018766, -0.035212, -0.160336,  0.055648}
};
const float encoder_weight_hh_output[10][10] = {
    {-0.286315,  0.203572,  0.149965, -0.003819,  0.551306, -0.470914, -0.061467,  0.474877,  0.177903, -0.147203},
    { 0.334139,  0.226832, -0.759141,  0.309350, -0.117655, -0.039550,  0.172172,  0.208778,  0.053792, -0.165938},
    {-0.439607, -0.583258, -0.782624,  0.004830,  0.239402, -0.613342,  0.373480,  0.393529,  0.241809,  0.058142},
    {-0.201355,  0.544877,  0.549350,  0.256113,  0.242408,  0.212646, -0.112505,  0.160456, -0.045488, -0.333798},
    { 0.098882, -0.033247,  0.385876,  0.066079,  0.220970, -0.325114,  0.263579, -0.282274, -0.219572, -0.235328},
    {-0.141449,  0.277622, -0.571223, -0.139421,  0.001324,  0.375694, -0.047283, -0.132529,  0.414920, -0.079642},
    { 0.163065, -0.136310,  0.010498, -0.115638,  0.274524,  0.009001,  0.239638,  0.276683, -0.296295, -0.213552},
    { 0.022798,  0.019171,  0.327660,  0.172418,  0.243196, -0.269249,  0.350166, -0.146103,  0.152616, -0.141431},
    {-0.318222, -0.202239, -0.375213, -0.259886, -0.327057, -0.159553, -0.390365, -0.151947,  0.049886,  0.192894},
    {-0.277048,  0.378073,  0.133937,  0.176796, -0.028008, -0.043888, -0.177153,  0.225537, -0.457634,  0.194602}
};
const float encoder_weight_ih_cell[10] = {-0.046238, -0.261643, -0.107958, 0.071211, -0.053914, -0.133651, -0.059945, -0.033325, 0.611681, 0.182900
};
const float encoder_weight_ih_forget[10] = {
    -0.111313, -0.625289, 0.640298, 0.117773, -0.247281,
     0.242820, -0.216818, -0.029179, 0.277712, -0.395539
};
const float encoder_weight_ih_input[10] = {
    0.188037, -0.163641, -0.005786, -0.104340, -0.032202,
    0.163559,  0.192639,  0.219743,  0.411810, -0.400421
};
const float encoder_weight_ih_output[10] = {
    -0.055270, -0.253590, 0.299954, -0.112142, -0.232327,
     0.098335,  0.019806, 0.135692,  0.284431, -0.167503
};
const float memory_matrix[20][10] = {
    { 0.573149,  0.873812,  0.280262,  0.006831, -0.482833,  0.231173,  1.286086, -0.479768, -0.266696, -0.604374 },
    {-1.182157, -1.595982,  0.516231, -0.464804, -1.683488, -0.249473,  0.685628, -1.947769, -1.516521, -0.329043 },
    { 0.930185, -1.678201,  1.478246, -0.108213, -0.959299,  0.066282,  0.577969,  0.163323, -1.520784,  0.228224 },
    { 0.265573, -2.278728,  0.765819,  0.289522,  1.236000, -0.303853, -0.240614, -0.584109, -0.831685,  0.127580 },
    {-1.094585, -0.732364, -0.809823,  1.999339, -0.712157,  0.593417,  2.196013, -0.046124, -1.714935,  0.125395 },
    {-0.448626,  0.287254, -1.362893,  0.173457,  0.383231,  1.351194,  0.769960,  1.283302,  0.585406, -0.315394 },
    { 0.966758, -0.342411,  0.443817,  0.211374,  0.800631,  0.895472,  0.000986, -0.226689, -0.257768,  0.376686 },
    { 0.543722, -0.904451, -1.724835,  0.357560, -1.690832,  0.630224, -1.791495, -1.459776, -0.426333, -0.043407 },
    { 0.134065,  2.030820,  1.389272, -0.505137, -0.050060, -0.678693, -0.819658,  0.142673,  0.170405, -0.935630 },
    { 0.506718, -0.002586, -1.242238, -1.192417,  0.967950,  1.111951,  1.534476,  1.168695,  1.986248,  0.537204 },
    {-0.843039,  0.004860, -0.907421, -0.250485, -1.062973,  1.923916, -1.463163, -0.610893, -0.288742,  0.684471 },
    {-1.977261,  0.756651, -0.540920,  0.988891,  0.998259,  0.065567,  1.090744, -0.951159, -0.655003, -0.553841 },
    {-1.412050,  0.109596,  0.078534, -0.747348,  0.325294,  0.318428,  0.646312, -0.008046, -0.570114,  0.267511 },
    {-2.644499, -1.182629, -0.279415,  1.661874,  0.042146,  1.238225,  0.941854, -1.314204, -1.428862, -0.752823 },
    {-1.168321, -0.386567,  1.924125, -2.137393, -0.341184, -1.126645,  0.561582, -0.463690, -0.536127, -0.602827 },
    {-1.156037,  1.997346, -0.009725,  1.793991,  1.400027,  1.755951, -0.007502,  1.704506,  0.382951,  0.398196 },
    { 0.350274, -0.602995, -0.304102, -0.189046,  1.788789,  0.780008, -0.654116, -1.207163,  0.292289,  0.001405 },
    {-1.388751,  0.477421, -0.325306,  0.917299,  0.163869, -1.294685,  1.613875,  0.977514,  0.467417, -1.411705 },
    { 0.297176, -2.033730,  1.323424, -1.490234,  0.585935,  2.440757,  0.673172, -0.572811, -1.187190,  0.139389 },
    { 0.147648,  2.308807, -0.060262,  1.307483,  0.541123, -0.388736,  0.237868, -0.647137,  0.239105,  0.599013 }
};
const float output_layer_weight_row_0[10] = {
    0.106299, 1.743522, -0.387284, 0.863765, -0.987354,
   -0.294931, -0.638355, 0.286231, -0.351003, 2.043217
};
const float output_bias = -0.057126;

// Add other weights as needed (hidden-hidden, biases, etc.)

#endif